x,y_noisy,y_mean,y_original
0,1,0.998104767727067,0.998104767727067
0.10101010101010102,0.9987248910127429,0.9951560277330016,0.9951560277330016
0.20202020202020204,0.9949028158568303,0.9901786301815724,0.9901786301815724
0.30303030303030304,0.9885435216570246,0.9829832092259222,0.9829832092259222
0.4040404040404041,0.9796632259996998,0.9745725771495405,0.9745725771495405
0.5050505050505051,0.9682845755744598,0.9634978884456477,0.9634978884456477
0.6060606060606061,0.9544365884201449,0.9501177351790123,0.9501177351790123
0.7070707070707071,0.9381545799225068,0.9341346957455873,0.9341346957455873
0.8080808080808082,0.9194800727522776,0.9154156909179632,0.9154156909179632
0.9090909090909092,0.8984606909733078,0.8943573109664028,0.8943573109664028
1.0101010101010102,0.8751500385908233,0.8710801461951232,0.8710801461951232
1.1111111111111112,0.8496075628495278,0.845678167712289,0.845678167712289
1.2121212121212122,0.82189840263017,0.8181085029494364,0.8181085029494364
1.3131313131313131,0.7920932223312003,0.7884564063052844,0.7884564063052844
1.4141414141414141,0.7602680316591506,0.7567890577807391,0.7567890577807391
1.5151515151515151,0.7265039917873152,0.7231812940364202,0.7231812940364202
1.6161616161616164,0.6908872083770673,0.6877228289453858,0.6877228289453858
1.7171717171717171,0.6535085119896544,0.6505207934311248,0.6505207934311248
1.8181818181818183,0.6144632264484673,0.6116491493810879,0.6116491493810879
1.9191919191919191,0.5738509257425134,0.571229017297376,0.571229017297376
2.0202020202020203,0.5317751800910392,0.5293400674894222,0.5293400674894222
2.121212121212121,0.4883432918168964,0.48611318361806605,0.48611318361806605
2.2222222222222223,0.4436660217022285,0.4416401589019889,0.4416401589019889
2.323232323232323,0.39785730652433454,0.39603516462532856,0.39603516462532856
2.4242424242424243,0.3510339684920502,0.34943106138912705,0.34943106138912705
2.5252525252525255,0.30331541732365236,0.3019259508091579,0.3019259508091579
2.6262626262626263,0.25482334572604864,0.2536598081985007,0.2536598081985007
2.727272727272727,0.2056814190518485,0.2047390503065509,0.2047390503065509
2.8282828282828283,0.15601495992575853,0.15530257559567165,0.15530257559567165
2.929292929292929,0.10595062864457298,0.10546683991936102,0.10546683991936102
3.0303030303030303,0.05561610016580674,0.05536124503866163,0.05536124503866163
3.1313131313131315,0.005139738508725265,0.005116270826444981,0.005116270826444981
3.2323232323232327,-0.04534973060188546,-0.04514191370424509,-0.04514191370424509
3.333333333333333,-0.09572354801437544,-0.09528644529475155,-0.09528644529475155
3.4343434343434343,-0.1458532495141353,-0.14518495491705058,-0.14518495491705058
3.5353535353535355,-0.19561099343534294,-0.19471788905411572,-0.19471788905411572
3.6363636363636367,-0.24486988668507914,-0.24375229700886264,-0.24375229700886264
3.7373737373737375,-0.2935043083483736,-0.29216113165042334,-0.29216113165042334
3.8383838383838382,-0.3413902300489206,-0.33983524695227035,-0.33983524695227035
3.9393939393939394,-0.3884055322484736,-0.3866290558347649,-0.3866290558347649
4.040404040404041,-0.43443031567828566,-0.4324464743964814,-0.4324464743964814
4.141414141414142,-0.4793472071083811,-0.47712783200562436,-0.47712783200562436
4.242424242424242,-0.5230416586748752,-0.5205731613078479,-0.5205731613078479
4.343434343434343,-0.5654022400019971,-0.5627024115038884,-0.5627024115038884
4.444444444444445,-0.6063209223738354,-0.6035207167335983,-0.6035207167335983
4.545454545454545,-0.6456933542311115,-0.6428935698508855,-0.6428935698508855
4.646464646464646,-0.6834191272904034,-0.6810573074156834,-0.6810573074156834
4.747474747474747,-0.7194020326071524,-0.716903190136266,-0.716903190136266
4.848484848484849,-0.7535503059294446,-0.7509038075852053,-0.7509038075852053
4.94949494949495,-0.7857768617168548,-0.780498690920079,-0.780498690920079
5.050505050505051,100,-0.8102625784691749,-0.8102625784691749
5.151515151515151,-0.8441411921073312,-0.8383083332872869,-0.8383083332872869
5.252525252525253,-0.8701301249459654,-0.8666824487695216,-0.8666824487695216
5.353535353535354,-0.893900036299796,-0.8919418656311069,-0.8919418656311069
5.454545454545454,-0.9153903077136358,-0.9122017917543539,-0.9122017917543539
5.555555555555555,-0.9345461343110483,-0.9308926878629882,-0.9308926878629882
5.656565656565657,-0.9513186645587279,-0.9472163500875747,-0.9472163500875747
5.757575757575758,-0.9656651248485589,-0.961226958081204,-0.961226958081204
5.858585858585858,-0.9775489285796396,-0.9726982845193463,-0.9726982845193463
5.959595959595959,-0.9869397694620894,-0.9820483349873514,-0.9820483349873514
6.0606060606060606,-0.993813698804694,-0.9887909439761013,-0.9887909439761013
6.161616161616161,-0.9981531865892882,-0.9934379133657611,-0.9934379133657611
6.262626262626263,-0.9999471661761239,-0.9954096665789148,-0.9954096665789148
6.363636363636363,-0.9991910625262126,-0.994731941925311,-0.994731941925311
6.464646464646465,-0.9958868038686728,-0.9913543259652501,-0.9913543259652501
6.565656565656566,-0.9900428167833257,-0.9854780302974756,-0.9854780302974756
6.666666666666666,-0.9816740047110791,-0.9771310789136841,-0.9771310789136841
6.767676767676768,-0.9708017099469047,-0.9662860498494592,-0.9662860498494592
6.8686868686868685,-0.9574536592123347,-0.9530250739090369,-0.9530250739090369
6.969696969696971,-0.9416638929462768,-0.9373075247207538,-0.9373075247207538
7.070707070707071,-0.9234726784944765,-0.919210484827945,-0.919210484827945
7.171717171717171,-0.9029264074190066,-0.8987710661143785,-0.8987710661143785
7.272727272727273,-0.880077477189673,-0.8760304311014813,-0.8760304311014813
7.373737373737374,-0.8549841575590454,-0.8510572778866299,-0.8510572778866299
7.474747474747475,-0.8277104419618857,-0.8239121122103763,-0.8239121122103763
7.575757575757576,-0.7983258843179416,-0.7946638085079039,-0.7946638085079039
7.6767676767676765,-0.7669054216542901,-0.7633926978247406,-0.7633926978247406
7.777777777777778,-0.7335291829995831,-0.7301718058516313,-0.7301718058516313
7.878787878787879,-0.69828228503756,-0.6950830837313378,-0.6950830837313378
7.97979797979798,-0.661254615040949,-0.658230955998496,-0.658230955998496
8.080808080808081,-0.6225406016393301,-0.6196893931169623,-0.6196893931169623
8.181818181818182,-0.582238974005546,-0.579578585486223,-0.579578585486223
8.282828282828284,-0.5404525100747896,-0.5379776609064613,-0.5379776609064613
8.383838383838384,-0.49728777443846983,-0.49501676193105804,-0.49501676193105804
8.484848484848484,-0.45285484658127084,-0.45078699281354034,-0.45078699281354034
8.585858585858585,-0.40726704015447446,-0.4054018353896279,-0.4054018353896279
8.686868686868687,-0.3606406140014481,-0.3589938294309322,-0.3589938294309322
8.787878787878787,-0.3130944756722562,-0.3116602399685846,-0.3116602399685846
8.88888888888889,-0.2647498781834829,-0.26354101883021186,-0.26354101883021186
8.98989898989899,-0.21573011079661653,-0.21474171695716174,-0.21474171695716174
9.09090909090909,-0.16616018460355267,-0.16540146059204036,-0.16540146059204036
9.191919191919192,-0.11616651372106333,-0.1156359503569904,-0.1156359503569904
9.292929292929292,-0.06587659290724678,-0.0655746049330946,-0.0655746049330946
9.393939393939394,-0.015418672422097516,-0.01534827444335512,-0.01534827444335512
9.494949494949495,0.03507856903860484,0.034918921411930516,0.034918921411930516
9.595959595959595,0.0854863525020247,0.08509973255506835,0.08509973255506835
9.696969696969697,0.13567612713271912,0.13344891685613564,0.13344891685613564
9.797979797979798,0.18551989806528635,0.17884248779665687,0.17884248779665687
9.8989898989899,0.23489055281917826,0.21612978955374515,0.21612978955374515
10,0.28366218546322625,0.24594460528934137,0.24594460528934137
